digraph Tree {
node [shape=box, style="filled, rounded", color="black", fontname="helvetica"] ;
edge [fontname="helvetica"] ;
0 [label="Employment Length <= 1.5\nentropy = 0.432\nsamples = 1000000\nvalue = [911195, 88805]\nclass = 0", fillcolor="#e88d4c"] ;
1 [label="Employment Length <= 0.5\nentropy = 0.121\nsamples = 768202\nvalue = [755579, 12623]\nclass = 0", fillcolor="#e5833c"] ;
0 -> 1 [labeldistance=2.5, labelangle=45, headlabel="True"] ;
2 [label="Debt-To-Income Ratio <= 3.025\nentropy = 0.581\nsamples = 38028\nvalue = [32755, 5273]\nclass = 0", fillcolor="#e99559"] ;
1 -> 2 ;
3 [label="Debt-To-Income Ratio <= 0.545\nentropy = 0.104\nsamples = 6858\nvalue = [6764, 94]\nclass = 0", fillcolor="#e5833c"] ;
2 -> 3 ;
4 [label="Debt-To-Income Ratio <= -4.5\nentropy = 0.03\nsamples = 4287\nvalue = [4274, 13]\nclass = 0", fillcolor="#e5813a"] ;
3 -> 4 ;
5 [label="entropy = 0.0\nsamples = 1864\nvalue = [1864, 0]\nclass = 0", fillcolor="#e58139"] ;
4 -> 5 ;
6 [label="month_cos <= 0.933\nentropy = 0.048\nsamples = 2423\nvalue = [2410, 13]\nclass = 0", fillcolor="#e5823a"] ;
4 -> 6 ;
7 [label="entropy = 0.034\nsamples = 2288\nvalue = [2280, 8]\nclass = 0", fillcolor="#e5813a"] ;
6 -> 7 ;
8 [label="entropy = 0.229\nsamples = 135\nvalue = [130, 5]\nclass = 0", fillcolor="#e68641"] ;
6 -> 8 ;
9 [label="Amount Requested <= 2300.0\nentropy = 0.202\nsamples = 2571\nvalue = [2490, 81]\nclass = 0", fillcolor="#e6853f"] ;
3 -> 9 ;
10 [label="title <= 0.303\nentropy = 0.041\nsamples = 671\nvalue = [668, 3]\nclass = 0", fillcolor="#e5823a"] ;
9 -> 10 ;
11 [label="entropy = 0.016\nsamples = 669\nvalue = [668, 1]\nclass = 0", fillcolor="#e58139"] ;
10 -> 11 ;
12 [label="entropy = 0.0\nsamples = 2\nvalue = [0, 2]\nclass = 1", fillcolor="#399de5"] ;
10 -> 12 ;
13 [label="title_length <= -3.0\nentropy = 0.247\nsamples = 1900\nvalue = [1822, 78]\nclass = 0", fillcolor="#e68641"] ;
9 -> 13 ;
14 [label="entropy = 0.0\nsamples = 4\nvalue = [0, 4]\nclass = 1", fillcolor="#399de5"] ;
13 -> 14 ;
15 [label="entropy = 0.238\nsamples = 1896\nvalue = [1822, 74]\nclass = 0", fillcolor="#e68641"] ;
13 -> 15 ;
16 [label="Debt-To-Income Ratio <= 39.955\nentropy = 0.649\nsamples = 31170\nvalue = [25991, 5179]\nclass = 0", fillcolor="#ea9a60"] ;
2 -> 16 ;
17 [label="title <= 0.07\nentropy = 0.715\nsamples = 26272\nvalue = [21106, 5166]\nclass = 0", fillcolor="#eba069"] ;
16 -> 17 ;
18 [label="Amount Requested <= 2050.0\nentropy = 0.437\nsamples = 6985\nvalue = [6355, 630]\nclass = 0", fillcolor="#e88d4d"] ;
17 -> 18 ;
19 [label="entropy = 0.214\nsamples = 1942\nvalue = [1876, 66]\nclass = 0", fillcolor="#e68540"] ;
18 -> 19 ;
20 [label="entropy = 0.505\nsamples = 5043\nvalue = [4479, 564]\nclass = 0", fillcolor="#e89152"] ;
18 -> 20 ;
21 [label="title_starts_with_lowercase <= -4.5\nentropy = 0.787\nsamples = 19287\nvalue = [14751, 4536]\nclass = 0", fillcolor="#eda876"] ;
17 -> 21 ;
22 [label="entropy = 0.0\nsamples = 165\nvalue = [0, 165]\nclass = 1", fillcolor="#399de5"] ;
21 -> 22 ;
23 [label="entropy = 0.776\nsamples = 19122\nvalue = [14751, 4371]\nclass = 0", fillcolor="#eda674"] ;
21 -> 23 ;
24 [label="Debt-To-Income Ratio <= 48.435\nentropy = 0.027\nsamples = 4898\nvalue = [4885, 13]\nclass = 0", fillcolor="#e5813a"] ;
16 -> 24 ;
25 [label="month_sin <= 0.25\nentropy = 0.066\nsamples = 1658\nvalue = [1645, 13]\nclass = 0", fillcolor="#e5823b"] ;
24 -> 25 ;
26 [label="entropy = 0.011\nsamples = 1021\nvalue = [1020, 1]\nclass = 0", fillcolor="#e58139"] ;
25 -> 26 ;
27 [label="entropy = 0.135\nsamples = 637\nvalue = [625, 12]\nclass = 0", fillcolor="#e5833d"] ;
25 -> 27 ;
28 [label="entropy = 0.0\nsamples = 3240\nvalue = [3240, 0]\nclass = 0", fillcolor="#e58139"] ;
24 -> 28 ;
29 [label="Debt-To-Income Ratio <= 34.995\nentropy = 0.081\nsamples = 730174\nvalue = [722824, 7350]\nclass = 0", fillcolor="#e5823b"] ;
1 -> 29 ;
30 [label="Debt-To-Income Ratio <= 2.235\nentropy = 0.104\nsamples = 531380\nvalue = [524162, 7218]\nclass = 0", fillcolor="#e5833c"] ;
29 -> 30 ;
31 [label="Debt-To-Income Ratio <= 0.065\nentropy = 0.011\nsamples = 111998\nvalue = [111893, 105]\nclass = 0", fillcolor="#e58139"] ;
30 -> 31 ;
32 [label="title <= 0.303\nentropy = 0.001\nsamples = 73067\nvalue = [73061, 6]\nclass = 0", fillcolor="#e58139"] ;
31 -> 32 ;
33 [label="entropy = 0.001\nsamples = 72733\nvalue = [72730, 3]\nclass = 0", fillcolor="#e58139"] ;
32 -> 33 ;
34 [label="entropy = 0.074\nsamples = 334\nvalue = [331, 3]\nclass = 0", fillcolor="#e5823b"] ;
32 -> 34 ;
35 [label="title <= 0.303\nentropy = 0.026\nsamples = 38931\nvalue = [38832, 99]\nclass = 0", fillcolor="#e5813a"] ;
31 -> 35 ;
36 [label="entropy = 0.021\nsamples = 38844\nvalue = [38764, 80]\nclass = 0", fillcolor="#e58139"] ;
35 -> 36 ;
37 [label="entropy = 0.757\nsamples = 87\nvalue = [68, 19]\nclass = 0", fillcolor="#eca470"] ;
35 -> 37 ;
38 [label="Amount Requested <= 5012.5\nentropy = 0.124\nsamples = 419382\nvalue = [412269, 7113]\nclass = 0", fillcolor="#e5833c"] ;
30 -> 38 ;
39 [label="title <= 0.303\nentropy = 0.054\nsamples = 158446\nvalue = [157465, 981]\nclass = 0", fillcolor="#e5823a"] ;
38 -> 39 ;
40 [label="entropy = 0.051\nsamples = 158133\nvalue = [157229, 904]\nclass = 0", fillcolor="#e5823a"] ;
39 -> 40 ;
41 [label="entropy = 0.805\nsamples = 313\nvalue = [236, 77]\nclass = 0", fillcolor="#edaa7a"] ;
39 -> 41 ;
42 [label="title <= 0.303\nentropy = 0.161\nsamples = 260936\nvalue = [254804, 6132]\nclass = 0", fillcolor="#e6843e"] ;
38 -> 42 ;
43 [label="entropy = 0.156\nsamples = 260403\nvalue = [254514, 5889]\nclass = 0", fillcolor="#e6843e"] ;
42 -> 43 ;
44 [label="entropy = 0.994\nsamples = 533\nvalue = [290, 243]\nclass = 0", fillcolor="#fbebdf"] ;
42 -> 44 ;
45 [label="Debt-To-Income Ratio <= 39.965\nentropy = 0.008\nsamples = 198794\nvalue = [198662, 132]\nclass = 0", fillcolor="#e58139"] ;
29 -> 45 ;
46 [label="Amount Requested <= 30375.0\nentropy = 0.028\nsamples = 41631\nvalue = [41511, 120]\nclass = 0", fillcolor="#e5813a"] ;
45 -> 46 ;
47 [label="Amount Requested <= 30325.0\nentropy = 0.032\nsamples = 36753\nvalue = [36633, 120]\nclass = 0", fillcolor="#e5813a"] ;
46 -> 47 ;
48 [label="entropy = 0.031\nsamples = 36751\nvalue = [36633, 118]\nclass = 0", fillcolor="#e5813a"] ;
47 -> 48 ;
49 [label="entropy = 0.0\nsamples = 2\nvalue = [0, 2]\nclass = 1", fillcolor="#399de5"] ;
47 -> 49 ;
50 [label="entropy = 0.0\nsamples = 4878\nvalue = [4878, 0]\nclass = 0", fillcolor="#e58139"] ;
46 -> 50 ;
51 [label="Debt-To-Income Ratio <= 49.455\nentropy = 0.001\nsamples = 157163\nvalue = [157151, 12]\nclass = 0", fillcolor="#e58139"] ;
45 -> 51 ;
52 [label="month_sin <= 0.25\nentropy = 0.003\nsamples = 55175\nvalue = [55163, 12]\nclass = 0", fillcolor="#e58139"] ;
51 -> 52 ;
53 [label="entropy = 0.0\nsamples = 36028\nvalue = [36027, 1]\nclass = 0", fillcolor="#e58139"] ;
52 -> 53 ;
54 [label="entropy = 0.007\nsamples = 19147\nvalue = [19136, 11]\nclass = 0", fillcolor="#e58139"] ;
52 -> 54 ;
55 [label="entropy = 0.0\nsamples = 101988\nvalue = [101988, 0]\nclass = 0", fillcolor="#e58139"] ;
51 -> 55 ;
56 [label="Employment Length <= 6.5\nentropy = 0.914\nsamples = 231798\nvalue = [155616, 76182]\nclass = 0", fillcolor="#f2bf9a"] ;
0 -> 56 [labeldistance=2.5, labelangle=-45, headlabel="False"] ;
57 [label="Employment Length <= 5.5\nentropy = 0.708\nsamples = 163395\nvalue = [131855, 31540]\nclass = 0", fillcolor="#eb9f68"] ;
56 -> 57 ;
58 [label="Debt-To-Income Ratio <= 2.815\nentropy = 0.997\nsamples = 48921\nvalue = [22832, 26089]\nclass = 1", fillcolor="#e6f3fc"] ;
57 -> 58 ;
59 [label="Debt-To-Income Ratio <= 0.055\nentropy = 0.53\nsamples = 4109\nvalue = [3615, 494]\nclass = 0", fillcolor="#e99254"] ;
58 -> 59 ;
60 [label="Debt-To-Income Ratio <= -4.5\nentropy = 0.07\nsamples = 1779\nvalue = [1764, 15]\nclass = 0", fillcolor="#e5823b"] ;
59 -> 60 ;
61 [label="entropy = 0.0\nsamples = 631\nvalue = [631, 0]\nclass = 0", fillcolor="#e58139"] ;
60 -> 61 ;
62 [label="entropy = 0.1\nsamples = 1148\nvalue = [1133, 15]\nclass = 0", fillcolor="#e5833c"] ;
60 -> 62 ;
63 [label="Amount Requested <= 3012.5\nentropy = 0.733\nsamples = 2330\nvalue = [1851, 479]\nclass = 0", fillcolor="#eca26c"] ;
59 -> 63 ;
64 [label="entropy = 0.323\nsamples = 628\nvalue = [591, 37]\nclass = 0", fillcolor="#e78945"] ;
63 -> 64 ;
65 [label="entropy = 0.826\nsamples = 1702\nvalue = [1260, 442]\nclass = 0", fillcolor="#eead7e"] ;
63 -> 65 ;
66 [label="Debt-To-Income Ratio <= 39.79\nentropy = 0.985\nsamples = 44812\nvalue = [19217, 25595]\nclass = 1", fillcolor="#cee7f9"] ;
58 -> 66 ;
67 [label="title <= 0.048\nentropy = 0.975\nsamples = 43047\nvalue = [17492, 25555]\nclass = 1", fillcolor="#c1e0f7"] ;
66 -> 67 ;
68 [label="entropy = 0.925\nsamples = 6617\nvalue = [4364, 2253]\nclass = 0", fillcolor="#f2c29f"] ;
67 -> 68 ;
69 [label="entropy = 0.943\nsamples = 36430\nvalue = [13128, 23302]\nclass = 1", fillcolor="#a9d4f4"] ;
67 -> 69 ;
70 [label="Debt-To-Income Ratio <= 49.095\nentropy = 0.156\nsamples = 1765\nvalue = [1725, 40]\nclass = 0", fillcolor="#e6843e"] ;
66 -> 70 ;
71 [label="entropy = 0.341\nsamples = 630\nvalue = [590, 40]\nclass = 0", fillcolor="#e78a46"] ;
70 -> 71 ;
72 [label="entropy = 0.0\nsamples = 1135\nvalue = [1135, 0]\nclass = 0", fillcolor="#e58139"] ;
70 -> 72 ;
73 [label="Amount Requested <= 5012.5\nentropy = 0.276\nsamples = 114474\nvalue = [109023, 5451]\nclass = 0", fillcolor="#e68743"] ;
57 -> 73 ;
74 [label="title <= 0.303\nentropy = 0.111\nsamples = 45024\nvalue = [44356, 668]\nclass = 0", fillcolor="#e5833c"] ;
73 -> 74 ;
75 [label="Debt-To-Income Ratio <= 3.225\nentropy = 0.102\nsamples = 44870\nvalue = [44271, 599]\nclass = 0", fillcolor="#e5833c"] ;
74 -> 75 ;
76 [label="entropy = 0.017\nsamples = 13206\nvalue = [13185, 21]\nclass = 0", fillcolor="#e58139"] ;
75 -> 76 ;
77 [label="entropy = 0.132\nsamples = 31664\nvalue = [31086, 578]\nclass = 0", fillcolor="#e5833d"] ;
75 -> 77 ;
78 [label="Debt-To-Income Ratio <= 1.16\nentropy = 0.992\nsamples = 154\nvalue = [85, 69]\nclass = 0", fillcolor="#fae7da"] ;
74 -> 78 ;
79 [label="entropy = 0.0\nsamples = 21\nvalue = [21, 0]\nclass = 0", fillcolor="#e58139"] ;
78 -> 79 ;
80 [label="entropy = 0.999\nsamples = 133\nvalue = [64, 69]\nclass = 1", fillcolor="#f1f8fd"] ;
78 -> 80 ;
81 [label="Debt-To-Income Ratio <= 2.565\nentropy = 0.362\nsamples = 69450\nvalue = [64667, 4783]\nclass = 0", fillcolor="#e78a48"] ;
73 -> 81 ;
82 [label="Debt-To-Income Ratio <= 0.085\nentropy = 0.05\nsamples = 12389\nvalue = [12319, 70]\nclass = 0", fillcolor="#e5823a"] ;
81 -> 82 ;
83 [label="entropy = 0.002\nsamples = 7922\nvalue = [7921, 1]\nclass = 0", fillcolor="#e58139"] ;
82 -> 83 ;
84 [label="entropy = 0.115\nsamples = 4467\nvalue = [4398, 69]\nclass = 0", fillcolor="#e5833c"] ;
82 -> 84 ;
85 [label="Debt-To-Income Ratio <= 34.955\nentropy = 0.411\nsamples = 57061\nvalue = [52348, 4713]\nclass = 0", fillcolor="#e78c4b"] ;
81 -> 85 ;
86 [label="entropy = 0.483\nsamples = 44169\nvalue = [39557, 4612]\nclass = 0", fillcolor="#e89050"] ;
85 -> 86 ;
87 [label="entropy = 0.066\nsamples = 12892\nvalue = [12791, 101]\nclass = 0", fillcolor="#e5823b"] ;
85 -> 87 ;
88 [label="Debt-To-Income Ratio <= 39.975\nentropy = 0.932\nsamples = 68403\nvalue = [23761, 44642]\nclass = 1", fillcolor="#a2d1f3"] ;
56 -> 88 ;
89 [label="Debt-To-Income Ratio <= 3.645\nentropy = 0.92\nsamples = 67025\nvalue = [22449, 44576]\nclass = 1", fillcolor="#9dcef2"] ;
88 -> 89 ;
90 [label="Debt-To-Income Ratio <= 0.155\nentropy = 0.855\nsamples = 3695\nvalue = [2662, 1033]\nclass = 0", fillcolor="#efb286"] ;
89 -> 90 ;
91 [label="Debt-To-Income Ratio <= -4.5\nentropy = 0.183\nsamples = 864\nvalue = [840, 24]\nclass = 0", fillcolor="#e6853f"] ;
90 -> 91 ;
92 [label="entropy = 0.0\nsamples = 358\nvalue = [358, 0]\nclass = 0", fillcolor="#e58139"] ;
91 -> 92 ;
93 [label="entropy = 0.275\nsamples = 506\nvalue = [482, 24]\nclass = 0", fillcolor="#e68743"] ;
91 -> 93 ;
94 [label="title <= 0.048\nentropy = 0.94\nsamples = 2831\nvalue = [1822, 1009]\nclass = 0", fillcolor="#f3c7a7"] ;
90 -> 94 ;
95 [label="entropy = 0.749\nsamples = 720\nvalue = [566, 154]\nclass = 0", fillcolor="#eca36f"] ;
94 -> 95 ;
96 [label="entropy = 0.974\nsamples = 2111\nvalue = [1256, 855]\nclass = 0", fillcolor="#f7d7c0"] ;
94 -> 96 ;
97 [label="title <= 0.07\nentropy = 0.896\nsamples = 63330\nvalue = [19787, 43543]\nclass = 1", fillcolor="#93caf1"] ;
89 -> 97 ;
98 [label="title <= 0.029\nentropy = 0.998\nsamples = 8143\nvalue = [3868, 4275]\nclass = 1", fillcolor="#ecf6fd"] ;
97 -> 98 ;
99 [label="entropy = 0.949\nsamples = 1589\nvalue = [1004, 585]\nclass = 0", fillcolor="#f4caac"] ;
98 -> 99 ;
100 [label="entropy = 0.989\nsamples = 6554\nvalue = [2864, 3690]\nclass = 1", fillcolor="#d3e9f9"] ;
98 -> 100 ;
101 [label="Amount Requested <= 29987.5\nentropy = 0.867\nsamples = 55187\nvalue = [15919, 39268]\nclass = 1", fillcolor="#89c5f0"] ;
97 -> 101 ;
102 [label="entropy = 0.834\nsamples = 47589\nvalue = [12596, 34993]\nclass = 1", fillcolor="#80c0ee"] ;
101 -> 102 ;
103 [label="entropy = 0.989\nsamples = 7598\nvalue = [3323, 4275]\nclass = 1", fillcolor="#d3e9f9"] ;
101 -> 103 ;
104 [label="Debt-To-Income Ratio <= 49.63\nentropy = 0.277\nsamples = 1378\nvalue = [1312, 66]\nclass = 0", fillcolor="#e68743"] ;
88 -> 104 ;
105 [label="month_sin <= 0.25\nentropy = 0.523\nsamples = 560\nvalue = [494, 66]\nclass = 0", fillcolor="#e89253"] ;
104 -> 105 ;
106 [label="month_cos <= -0.933\nentropy = 0.122\nsamples = 241\nvalue = [237, 4]\nclass = 0", fillcolor="#e5833c"] ;
105 -> 106 ;
107 [label="entropy = 0.503\nsamples = 27\nvalue = [24, 3]\nclass = 0", fillcolor="#e89152"] ;
106 -> 107 ;
108 [label="entropy = 0.043\nsamples = 214\nvalue = [213, 1]\nclass = 0", fillcolor="#e5823a"] ;
106 -> 108 ;
109 [label="Amount Requested <= 3250.0\nentropy = 0.71\nsamples = 319\nvalue = [257, 62]\nclass = 0", fillcolor="#eb9f69"] ;
105 -> 109 ;
110 [label="entropy = 0.183\nsamples = 36\nvalue = [35, 1]\nclass = 0", fillcolor="#e6853f"] ;
109 -> 110 ;
111 [label="entropy = 0.752\nsamples = 283\nvalue = [222, 61]\nclass = 0", fillcolor="#eca46f"] ;
109 -> 111 ;
112 [label="entropy = 0.0\nsamples = 818\nvalue = [818, 0]\nclass = 0", fillcolor="#e58139"] ;
104 -> 112 ;
}